digraph Tree {
node [shape=box, style="filled", color="black"] ;
0 [label="euribor3m <= 1.361\nentropy = 0.51\nsamples = 32950\nvalue = [29216, 3734]", fillcolor="#e58139de"] ;
1 [label="month <= 4.014\nentropy = 0.803\nsamples = 10759\nvalue = [8123, 2636]", fillcolor="#e58139ac"] ;
0 -> 1 [labeldistance=2.5, labelangle=45, headlabel="True"] ;
2 [label="poutcome <= 1.478\nentropy = 0.894\nsamples = 4204\nvalue = [2896, 1308]", fillcolor="#e581398c"] ;
1 -> 2 ;
3 [label="month <= 3.682\nentropy = 0.834\nsamples = 3723\nvalue = [2737, 986]", fillcolor="#e58139a3"] ;
2 -> 3 ;
4 [label="month <= 1.057\nentropy = 0.809\nsamples = 3091\nvalue = [2322, 769]", fillcolor="#e58139ab"] ;
3 -> 4 ;
5 [label="month <= 0.92\nentropy = 0.763\nsamples = 2679\nvalue = [2086, 593]", fillcolor="#e58139b7"] ;
4 -> 5 ;
6 [label="poutcome <= 0.596\nentropy = 0.698\nsamples = 2043\nvalue = [1658, 385]", fillcolor="#e58139c4"] ;
5 -> 6 ;
7 [label="entropy = 0.51\nsamples = 520\nvalue = [461, 59]", fillcolor="#e58139de"] ;
6 -> 7 ;
8 [label="entropy = 0.749\nsamples = 1523\nvalue = [1197, 326]", fillcolor="#e58139ba"] ;
6 -> 8 ;
9 [label="entropy = 0.912\nsamples = 636\nvalue = [428, 208]", fillcolor="#e5813983"] ;
5 -> 9 ;
10 [label="entropy = 0.985\nsamples = 412\nvalue = [236, 176]", fillcolor="#e5813941"] ;
4 -> 10 ;
11 [label="entropy = 0.928\nsamples = 632\nvalue = [415, 217]", fillcolor="#e581397a"] ;
3 -> 11 ;
12 [label="entropy = 0.915\nsamples = 481\nvalue = [159, 322]", fillcolor="#399de581"] ;
2 -> 12 ;
13 [label="poutcome <= 1.642\nentropy = 0.727\nsamples = 6555\nvalue = [5227, 1328]", fillcolor="#e58139be"] ;
1 -> 13 ;
14 [label="month <= 6.01\nentropy = 0.632\nsamples = 5977\nvalue = [5027, 950]", fillcolor="#e58139cf"] ;
13 -> 14 ;
15 [label="month <= 5.008\nentropy = 0.528\nsamples = 4948\nvalue = [4357, 591]", fillcolor="#e58139dc"] ;
14 -> 15 ;
16 [label="entropy = 0.994\nsamples = 355\nvalue = [194, 161]", fillcolor="#e581392b"] ;
15 -> 16 ;
17 [label="poutcome <= 0.525\nentropy = 0.448\nsamples = 4593\nvalue = [4163, 430]", fillcolor="#e58139e5"] ;
15 -> 17 ;
18 [label="entropy = 0.392\nsamples = 1412\nvalue = [1303, 109]", fillcolor="#e58139ea"] ;
17 -> 18 ;
19 [label="entropy = 0.472\nsamples = 3181\nvalue = [2860, 321]", fillcolor="#e58139e2"] ;
17 -> 19 ;
20 [label="entropy = 0.933\nsamples = 1029\nvalue = [670, 359]", fillcolor="#e5813976"] ;
14 -> 20 ;
21 [label="entropy = 0.93\nsamples = 578\nvalue = [200, 378]", fillcolor="#399de578"] ;
13 -> 21 ;
22 [label="month <= 3.549\nentropy = 0.284\nsamples = 22191\nvalue = [21093, 1098]", fillcolor="#e58139f2"] ;
0 -> 22 [labeldistance=2.5, labelangle=-45, headlabel="False"] ;
23 [label="month <= 1.126\nentropy = 0.324\nsamples = 9502\nvalue = [8941, 561]", fillcolor="#e58139ef"] ;
22 -> 23 ;
24 [label="entropy = 0.304\nsamples = 4140\nvalue = [3916, 224]", fillcolor="#e58139f0"] ;
23 -> 24 ;
25 [label="month <= 2.87\nentropy = 0.339\nsamples = 5362\nvalue = [5025, 337]", fillcolor="#e58139ee"] ;
23 -> 25 ;
26 [label="entropy = 0.592\nsamples = 7\nvalue = [6, 1]", fillcolor="#e58139d4"] ;
25 -> 26 ;
27 [label="entropy = 0.338\nsamples = 5355\nvalue = [5019, 336]", fillcolor="#e58139ee"] ;
25 -> 27 ;
28 [label="poutcome <= 0.354\nentropy = 0.253\nsamples = 12689\nvalue = [12152, 537]", fillcolor="#e58139f4"] ;
22 -> 28 ;
29 [label="entropy = 0.219\nsamples = 543\nvalue = [524, 19]", fillcolor="#e58139f6"] ;
28 -> 29 ;
30 [label="month <= 7.538\nentropy = 0.254\nsamples = 12146\nvalue = [11628, 518]", fillcolor="#e58139f4"] ;
28 -> 30 ;
31 [label="month <= 4.121\nentropy = 0.243\nsamples = 12099\nvalue = [11612, 487]", fillcolor="#e58139f4"] ;
30 -> 31 ;
32 [label="entropy = 0.264\nsamples = 3500\nvalue = [3343, 157]", fillcolor="#e58139f3"] ;
31 -> 32 ;
33 [label="month <= 6.7\nentropy = 0.235\nsamples = 8599\nvalue = [8269, 330]", fillcolor="#e58139f5"] ;
31 -> 33 ;
34 [label="entropy = 0.199\nsamples = 6256\nvalue = [6062, 194]", fillcolor="#e58139f7"] ;
33 -> 34 ;
35 [label="poutcome <= 1.191\nentropy = 0.32\nsamples = 2343\nvalue = [2207, 136]", fillcolor="#e58139ef"] ;
33 -> 35 ;
36 [label="entropy = 0.32\nsamples = 2320\nvalue = [2185, 135]", fillcolor="#e58139ef"] ;
35 -> 36 ;
37 [label="entropy = 0.258\nsamples = 23\nvalue = [22, 1]", fillcolor="#e58139f3"] ;
35 -> 37 ;
38 [label="entropy = 0.925\nsamples = 47\nvalue = [16, 31]", fillcolor="#399de57b"] ;
30 -> 38 ;
}